Language model created by QuickLM on Sat Nov  5 20:40:55 EDT 2016
Copyright (c) 1996-2010 Carnegie Mellon University and Alexander I. Rudnicky

The model is in standard ARPA format, designed by Doug Paul while he was at MITRE.

The code that was used to produce this language model is available in Open Source.
Please visit http://www.speech.cs.cmu.edu/tools/ for more information

The (fixed) discount mass is 0.5. The backoffs are computed using the ratio method.
This model based on a corpus of 23 sentences and 39 words

\data\
ngram 1=39
ngram 2=64
ngram 3=49

\1-grams:
-2.2923 1 -0.2966
-2.2923 10 -0.2468
-0.9305 </s> -0.3010
-0.9305 <s> -0.2443
-1.6902 A -0.2875
-2.2923 AS -0.2468
-2.2923 BACKWARD -0.2468
-2.2923 CLASS -0.2468
-2.2923 CLOSE -0.2468
-1.8151 CREATE -0.2898
-2.2923 CV -0.2468
-1.9912 DEFINE -0.2921
-2.2923 DOUBLE -0.2468
-1.6902 FILE -0.2443
-2.2923 FLOAT -0.2468
-1.9912 FOR -0.2443
-2.2923 FORWARD -0.2468
-2.2923 FROM -0.2988
-2.2923 GOTO -0.2988
-2.2923 I -0.2988
-1.9912 INT -0.2418
-2.2923 LINE -0.2468
-2.2923 MAIN -0.2966
-1.9912 METHOD -0.2468
-2.2923 NEW -0.2921
-2.2923 NEXT -0.2988
-2.2923 OPEN -0.2921
-2.2923 PRINT -0.2988
-2.2923 PRIVATE -0.2468
-2.2923 PUBLIC -0.2468
-1.9912 SAVE -0.2921
-2.2923 STRING -0.2468
-1.9912 TO -0.2966
-2.2923 VALUE -0.2966
-2.2923 VARIABLE -0.2468
-2.2923 WELCOME -0.2966
-2.2923 WHILE -0.2468
-2.2923 WITH -0.2988
-1.9912 X -0.2443

\2-grams:
-0.3010 1 TO -0.1761
-0.3010 10 </s> -0.3010
-1.6628 <s> BACKWARD 0.0000
-1.6628 <s> CLOSE 0.0000
-1.1856 <s> CREATE 0.0000
-1.3617 <s> DEFINE 0.0000
-1.6628 <s> DOUBLE 0.0000
-1.6628 <s> FLOAT 0.0000
-1.3617 <s> FOR 0.0000
-1.6628 <s> FORWARD 0.0000
-1.6628 <s> GOTO 0.0000
-1.6628 <s> INT -0.1761
-1.6628 <s> NEW 0.0000
-1.6628 <s> OPEN 0.0000
-1.6628 <s> PRINT 0.0000
-1.6628 <s> PRIVATE 0.0000
-1.6628 <s> PUBLIC 0.0000
-1.3617 <s> SAVE 0.0000
-1.6628 <s> STRING 0.0000
-1.6628 <s> WHILE 0.0000
-0.9031 A CLASS 0.0000
-0.9031 A INT -0.1761
-0.9031 A METHOD 0.0000
-0.9031 A VARIABLE 0.0000
-0.3010 AS </s> -0.3010
-0.3010 BACKWARD </s> -0.3010
-0.3010 CLASS </s> -0.3010
-0.3010 CLOSE </s> -0.3010
-0.4771 CREATE A -0.1761
-0.7782 CREATE MAIN 0.0000
-0.3010 CV </s> -0.3010
-0.3010 DEFINE A -0.1761
-0.3010 DOUBLE </s> -0.3010
-0.4260 FILE </s> -0.3010
-0.9031 FILE AS 0.0000
-0.3010 FLOAT </s> -0.3010
-0.6021 FOR </s> -0.3010
-0.6021 FOR I 0.0000
-0.3010 FORWARD </s> -0.3010
-0.3010 FROM 1 0.0000
-0.3010 GOTO NEXT 0.0000
-0.3010 I FROM 0.0000
-0.6021 INT </s> -0.3010
-0.6021 INT X -0.1761
-0.3010 LINE </s> -0.3010
-0.3010 MAIN METHOD 0.0000
-0.3010 METHOD </s> -0.3010
-0.3010 NEW FILE -0.0969
-0.3010 NEXT LINE 0.0000
-0.3010 OPEN FILE -0.0969
-0.3010 PRINT WELCOME 0.0000
-0.3010 PRIVATE </s> -0.3010
-0.3010 PUBLIC </s> -0.3010
-0.3010 SAVE FILE 0.0000
-0.3010 STRING </s> -0.3010
-0.6021 TO 10 0.0000
-0.6021 TO CV 0.0000
-0.3010 VALUE X -0.1761
-0.3010 VARIABLE </s> -0.3010
-0.3010 WELCOME TO -0.1761
-0.3010 WHILE </s> -0.3010
-0.3010 WITH VALUE 0.0000
-0.6021 X </s> -0.3010
-0.6021 X WITH 0.0000

\3-grams:
-0.3010 1 TO 10
-0.3010 <s> BACKWARD </s>
-0.3010 <s> CLOSE </s>
-0.4771 <s> CREATE A
-0.7782 <s> CREATE MAIN
-0.3010 <s> DEFINE A
-0.3010 <s> DOUBLE </s>
-0.3010 <s> FLOAT </s>
-0.6021 <s> FOR </s>
-0.6021 <s> FOR I
-0.3010 <s> FORWARD </s>
-0.3010 <s> GOTO NEXT
-0.3010 <s> INT </s>
-0.3010 <s> NEW FILE
-0.3010 <s> OPEN FILE
-0.3010 <s> PRINT WELCOME
-0.3010 <s> PRIVATE </s>
-0.3010 <s> PUBLIC </s>
-0.3010 <s> SAVE FILE
-0.3010 <s> STRING </s>
-0.3010 <s> WHILE </s>
-0.3010 A CLASS </s>
-0.3010 A INT X
-0.3010 A METHOD </s>
-0.3010 A VARIABLE </s>
-0.6021 CREATE A CLASS
-0.6021 CREATE A METHOD
-0.3010 CREATE MAIN METHOD
-0.6021 DEFINE A INT
-0.6021 DEFINE A VARIABLE
-0.3010 FILE AS </s>
-0.3010 FOR I FROM
-0.3010 FROM 1 TO
-0.3010 GOTO NEXT LINE
-0.3010 I FROM 1
-0.3010 INT X WITH
-0.3010 MAIN METHOD </s>
-0.3010 NEW FILE </s>
-0.3010 NEXT LINE </s>
-0.3010 OPEN FILE </s>
-0.3010 PRINT WELCOME TO
-0.6021 SAVE FILE </s>
-0.6021 SAVE FILE AS
-0.3010 TO 10 </s>
-0.3010 TO CV </s>
-0.3010 VALUE X </s>
-0.3010 WELCOME TO CV
-0.3010 WITH VALUE X
-0.3010 X WITH VALUE

\end\
