Language model created by QuickLM on Sun Nov  6 05:08:46 EST 2016
Copyright (c) 1996-2010 Carnegie Mellon University and Alexander I. Rudnicky

The model is in standard ARPA format, designed by Doug Paul while he was at MITRE.

The code that was used to produce this language model is available in Open Source.
Please visit http://www.speech.cs.cmu.edu/tools/ for more information

The (fixed) discount mass is 0.5. The backoffs are computed using the ratio method.
This model based on a corpus of 23 sentences and 36 words

\data\
ngram 1=36
ngram 2=58
ngram 3=45

\1-grams:
-2.2833 1 -0.2988
-2.2833 10 -0.2456
-0.9216 </s> -0.3010
-0.9216 <s> -0.2404
-1.5051 A -0.2825
-2.2833 AS -0.2456
-2.2833 BACKWARD -0.2456
-2.2833 CLASS -0.2456
-1.8062 CREATE -0.2849
-1.6812 DEFINE -0.2872
-2.2833 DOUBLE -0.2456
-1.9823 FOR -0.2430
-2.2833 FORWARD -0.2456
-2.2833 FROM -0.2988
-2.2833 HELLO -0.2456
-2.2833 I -0.2988
-2.2833 INT -0.2988
-2.2833 LINE -0.2456
-2.2833 MAIN -0.2965
-1.9823 METHOD -0.2456
-2.2833 NAME -0.2988
-2.2833 NEW -0.2456
-1.9823 NEXT -0.2430
-2.2833 OPEN -0.2456
-2.2833 PRINT -0.2988
-2.2833 PRIVATE -0.2456
-2.2833 PUBLIC -0.2456
-1.9823 SAVE -0.2430
-1.8062 STRING -0.2430
-2.2833 TO -0.2988
-2.2833 VALUE -0.2988
-2.2833 VARIABLE -0.2456
-2.2833 WHILE -0.2456
-2.2833 WITH -0.2988
-2.2833 X -0.2456
-2.2833 XYZ -0.2456

\2-grams:
-0.3010 1 TO 0.0000
-0.3010 10 </s> -0.3010
-1.6628 <s> BACKWARD 0.0000
-1.1856 <s> CREATE 0.0000
-1.0607 <s> DEFINE 0.0000
-1.6628 <s> DOUBLE 0.0000
-1.3617 <s> FOR 0.0000
-1.6628 <s> FORWARD 0.0000
-1.6628 <s> NEW 0.0000
-1.3617 <s> NEXT 0.0000
-1.6628 <s> OPEN 0.0000
-1.6628 <s> PRINT 0.0000
-1.6628 <s> PRIVATE 0.0000
-1.6628 <s> PUBLIC 0.0000
-1.3617 <s> SAVE 0.0000
-1.6628 <s> STRING -0.1249
-1.6628 <s> WHILE 0.0000
-1.0792 A CLASS 0.0000
-1.0792 A INT 0.0000
-1.0792 A METHOD 0.0000
-0.7782 A STRING 0.0000
-1.0792 A VARIABLE 0.0000
-0.3010 AS </s> -0.3010
-0.3010 BACKWARD </s> -0.3010
-0.3010 CLASS </s> -0.3010
-0.4771 CREATE A -0.2218
-0.7782 CREATE MAIN 0.0000
-0.3010 DEFINE A -0.1249
-0.3010 DOUBLE </s> -0.3010
-0.6021 FOR </s> -0.3010
-0.6021 FOR I 0.0000
-0.3010 FORWARD </s> -0.3010
-0.3010 FROM 1 0.0000
-0.3010 HELLO </s> -0.3010
-0.3010 I FROM 0.0000
-0.3010 INT X 0.0000
-0.3010 LINE </s> -0.3010
-0.3010 MAIN METHOD 0.0000
-0.3010 METHOD </s> -0.3010
-0.3010 NAME WITH 0.0000
-0.3010 NEW </s> -0.3010
-0.6021 NEXT </s> -0.3010
-0.6021 NEXT LINE 0.0000
-0.3010 OPEN </s> -0.3010
-0.3010 PRINT HELLO 0.0000
-0.3010 PRIVATE </s> -0.3010
-0.3010 PUBLIC </s> -0.3010
-0.6021 SAVE </s> -0.3010
-0.6021 SAVE AS 0.0000
-0.4771 STRING </s> -0.3010
-0.7782 STRING NAME 0.0000
-0.3010 TO 10 0.0000
-0.3010 VALUE XYZ 0.0000
-0.3010 VARIABLE </s> -0.3010
-0.3010 WHILE </s> -0.3010
-0.3010 WITH VALUE 0.0000
-0.3010 X </s> -0.3010
-0.3010 XYZ </s> -0.3010

\3-grams:
-0.3010 1 TO 10
-0.3010 <s> BACKWARD </s>
-0.4771 <s> CREATE A
-0.7782 <s> CREATE MAIN
-0.3010 <s> DEFINE A
-0.3010 <s> DOUBLE </s>
-0.6021 <s> FOR </s>
-0.6021 <s> FOR I
-0.3010 <s> FORWARD </s>
-0.3010 <s> NEW </s>
-0.6021 <s> NEXT </s>
-0.6021 <s> NEXT LINE
-0.3010 <s> OPEN </s>
-0.3010 <s> PRINT HELLO
-0.3010 <s> PRIVATE </s>
-0.3010 <s> PUBLIC </s>
-0.6021 <s> SAVE </s>
-0.6021 <s> SAVE AS
-0.3010 <s> STRING </s>
-0.3010 <s> WHILE </s>
-0.3010 A CLASS </s>
-0.3010 A INT X
-0.3010 A METHOD </s>
-0.6021 A STRING </s>
-0.6021 A STRING NAME
-0.3010 A VARIABLE </s>
-0.6021 CREATE A CLASS
-0.6021 CREATE A METHOD
-0.3010 CREATE MAIN METHOD
-0.9031 DEFINE A INT
-0.6021 DEFINE A STRING
-0.9031 DEFINE A VARIABLE
-0.3010 FOR I FROM
-0.3010 FROM 1 TO
-0.3010 I FROM 1
-0.3010 INT X </s>
-0.3010 MAIN METHOD </s>
-0.3010 NAME WITH VALUE
-0.3010 NEXT LINE </s>
-0.3010 PRINT HELLO </s>
-0.3010 SAVE AS </s>
-0.3010 STRING NAME WITH
-0.3010 TO 10 </s>
-0.3010 VALUE XYZ </s>
-0.3010 WITH VALUE XYZ

\end\
